{"voxel_size": 0.0031999999999999997, "block_size": 30, "grid_width": 750, "grid_height": 750, "grid_depth": 750, "atlas_width": 2048, "atlas_height": 2048, "atlas_depth": 32, "num_slices": 8, "min_x": -1.2, "min_y": -1.2, "min_z": -1.2, "atlas_blocks_x": 64, "atlas_blocks_y": 64, "atlas_blocks_z": 1, "worldspace_T_opengl": [[-1.0, 0.0, 0.0, 0.0], [0.0, 0.0, 1.0, 0.0], [0.0, 1.0, 0.0, 0.0], [0.0, 0.0, 0.0, 1.0]], "ndc": false, "0_weights": [[0.2036370038986206, -0.020977970212697983, -0.22066611051559448, 0.6295983791351318, -0.31459105014801025, -0.28924593329429626, -0.3358061611652374, 0.13251517713069916, 0.013840073719620705, 0.5345979332923889, 0.18911601603031158, -0.08202952891588211, -0.013310743495821953, 0.005187836475670338, 0.3595680296421051, -0.43522828817367554], [-0.14526581764221191, 0.14709343016147614, 0.12107507139444351, -0.1929662674665451, -0.22994771599769592, -0.24988147616386414, -0.23976734280586243, -0.025210049003362656, 0.07958437502384186, -0.34341955184936523, -0.43153977394104004, 0.10244079679250717, 0.4077776074409485, 0.04825500026345253, 0.17802350223064423, 0.1723891645669937], [0.1914369910955429, -0.031760670244693756, 0.08179451525211334, 0.1766945719718933, 0.07269158959388733, 0.37259310483932495, 0.2691277265548706, -0.05004755035042763, -0.32260555028915405, 0.36882084608078003, 0.1301821619272232, 0.04546460136771202, -0.29542556405067444, -0.27552154660224915, 0.036735888570547104, -0.30783072113990784], [0.1613379716873169, -0.1698402315378189, -0.0605783574283123, 0.6756129860877991, -0.3363613486289978, 0.0655461996793747, 0.051602840423583984, 0.26502618193626404, 0.22381533682346344, 0.3661617934703827, -0.1705446094274521, -0.07451744377613068, -0.23629821836948395, -0.0058094197884202, -0.06790032982826233, -0.2853158712387085], [-0.06809759140014648, -0.4174063801765442, 0.25968480110168457, 0.07414925843477249, 0.1373341828584671, -0.25059768557548523, 0.1265324354171753, 0.04358264058828354, -0.2615133225917816, 0.004222670570015907, -0.09997746348381042, -0.0044806841760873795, 0.08606597036123276, -0.32134148478507996, 0.40613994002342224, -0.34159746766090393], [-0.030581241473555565, -0.011502770707011223, 0.10949252545833588, -0.443136990070343, -0.0827755331993103, 0.13388657569885254, -0.34526121616363525, -0.1286570131778717, 0.14543034136295319, -0.22133924067020416, -0.13734027743339539, -0.06839890778064728, 0.22313861548900604, 0.0696445107460022, -0.2331237941980362, -0.2527020275592804], [-0.2844829559326172, 0.35322415828704834, 0.015112400986254215, 0.6893656253814697, 0.12985940277576447, 0.17841531336307526, -0.70647794008255, 0.1282435804605484, -0.37225502729415894, -0.38634005188941956, 0.14551419019699097, 0.15958693623542786, -0.06678063422441483, -0.13993439078330994, 0.06927695870399475, -0.12089672684669495], [0.13642193377017975, -0.18907958269119263, -0.1022317185997963, -0.5015490055084229, -0.14265401661396027, 0.3027644455432892, -0.2169010490179062, -0.14313648641109467, -0.22933357954025269, -0.4748934209346771, 0.20177090167999268, 0.2689562439918518, 0.3322005271911621, -0.029406720772385597, 0.13910186290740967, 0.005314680747687817], [-0.3716307580471039, 0.10960786044597626, 0.19473499059677124, 0.2567231357097626, 0.13456310331821442, 0.18325157463550568, -0.1535232812166214, 0.028619833290576935, -0.24935106933116913, 0.12814581394195557, -0.0844474583864212, 0.045068833976984024, 0.0010476229945197701, 0.28380247950553894, -0.03509354963898659, -0.07409033179283142], [-0.033444952219724655, -0.4374632239341736, 0.004931687843054533, -0.23687563836574554, 0.5042412877082825, 0.007922044023871422, -0.21395659446716309, 0.017167823389172554, 0.1734115183353424, 0.14525407552719116, -0.1514483243227005, -0.010268429294228554, 0.06059447303414345, -0.05314468592405319, 0.1607624590396881, -0.16726566851139069], [0.02658778801560402, -0.09192827343940735, 0.016438882797956467, 0.02076847478747368, -0.39409083127975464, -0.06716971844434738, 0.1314956396818161, -0.11205580085515976, -0.021675271913409233, -0.02947334386408329, 0.027758628129959106, 0.022102970629930496, -0.005712680984288454, -0.16352665424346924, 0.12049220502376556, -0.2894657254219055], [-0.2779705226421356, -0.018442949280142784, -0.2194060981273651, -0.05913179740309715, -0.2558765709400177, -0.10604917258024216, -0.24467973411083221, 0.18633510172367096, -0.05757325515151024, 0.4187154173851013, 0.21316179633140564, 0.07780511677265167, 0.057913944125175476, -0.05791433900594711, 0.17521829903125763, -0.035560477524995804], [-0.04567769914865494, -9.498536383034661e-05, -0.023425785824656487, 0.08669689297676086, 0.5969455242156982, 0.015435338951647282, 0.00996433012187481, 0.04816297069191933, 0.023663591593503952, 0.009103058837354183, 0.0083266980946064, -0.0015249400166794658, -0.02832326479256153, -0.017672725021839142, 0.055353593081235886, -0.05213039368391037], [0.013608815148472786, 0.05817889794707298, -0.03068075142800808, -0.0024963836185634136, 0.7632860541343689, -0.003590245731174946, 0.04955941066145897, -0.024032332003116608, -0.05611900985240936, 0.02382359281182289, 0.0240436103194952, 0.01003794465214014, -0.02723751962184906, -0.0190499946475029, -0.07408233731985092, -0.08465275168418884], [0.015090953558683395, 0.04895179718732834, -0.07041626423597336, 0.049447692930698395, 0.3612965941429138, -0.04092497006058693, 0.054619140923023224, 0.0053059691563248634, 0.011984013952314854, -0.006962339393794537, 0.019931206479668617, -0.02335498295724392, -0.023456644266843796, 0.02782156877219677, -0.04234160855412483, 0.05700080469250679], [0.2120276242494583, 0.1692461520433426, 0.3646318316459656, -0.18899241089820862, -0.5100032091140747, 0.20857784152030945, 0.17017590999603271, -0.10802267491817474, -0.03632744774222374, -0.1415168195962906, 0.1573859602212906, -0.05091661214828491, -0.21767359972000122, 0.335651159286499, -0.43486523628234863, -0.08700813353061676], [-0.25420352816581726, -0.08535154908895493, 0.28355270624160767, 0.08327121287584305, -0.3387269973754883, -0.10507737100124359, 0.2816317081451416, -0.18367548286914825, -0.10392532497644424, -0.11784178018569946, -0.023221900686621666, 0.374182790517807, -0.18835167586803436, 0.32818055152893066, -0.10944293439388275, 0.025218717753887177], [-0.3158307373523712, -0.156235009431839, -0.1908467411994934, 0.3836716413497925, -0.5475288033485413, 0.08801405131816864, -0.038081150501966476, -0.08550112694501877, -0.12558339536190033, 0.3722754418849945, 0.2447437345981598, 0.03691015765070915, 0.2780663073062897, -0.11307714879512787, -0.2507241666316986, -0.14917688071727753], [0.0627896785736084, -0.15929310023784637, -0.05294888839125633, 0.024203050881624222, 0.05830340087413788, 0.016203684732317924, -0.3141705095767975, -0.03413267806172371, -0.14971640706062317, 0.018621012568473816, -0.1454179733991623, 0.010501333512365818, -0.11751479655504227, -0.17466169595718384, -0.0068778288550674915, 0.2949471175670624], [0.03806172311306, 0.436280220746994, 0.09905397891998291, 0.1994200199842453, -0.15200527012348175, -0.15780770778656006, 0.0011154048843309283, 0.09110891819000244, 0.06312330067157745, 0.45904144644737244, -0.28090712428092957, 0.07896246016025543, 0.39008471369743347, -0.28137439489364624, -0.5390094518661499, 0.3104042708873749], [-0.4581097960472107, 0.6084107160568237, 0.08966000378131866, -0.00710143381729722, -0.8492417335510254, -0.3720959424972534, -0.09643998742103577, -0.04921172931790352, 0.033416032791137695, 0.28736093640327454, 0.10818818211555481, 0.345384418964386, -0.03698885813355446, 0.007091816049069166, -0.11162792146205902, 0.4981430768966675], [-0.038403503596782684, -0.12899410724639893, -0.027923589572310448, -0.21032258868217468, 0.5213646292686462, -0.02950912155210972, 0.0836879163980484, 0.06478014588356018, 0.22510680556297302, 0.12204594165086746, -0.10096648335456848, 0.0746324211359024, 0.03834378346800804, -0.1104329526424408, 0.1933945119380951, -0.25101345777511597], [0.006733032874763012, 0.03441576287150383, 0.0077063171193003654, -0.1552732288837433, -0.2184380143880844, 0.09722989052534103, -0.21570086479187012, 0.004095975775271654, -0.1374611109495163, -0.1429353803396225, 0.01931633986532688, -0.005866442807018757, -0.189170241355896, 0.220115065574646, 0.11136123538017273, 0.16779617965221405], [0.34180358052253723, -0.02228091098368168, -0.16074472665786743, 0.12915147840976715, -0.09663914889097214, -0.07782074809074402, 0.20756417512893677, 0.15720389783382416, 0.30502113699913025, 0.058185871690511703, 0.025075117126107216, -0.14060431718826294, -0.07080241292715073, 0.036277301609516144, -0.12085986882448196, 0.19971321523189545], [0.1607905477285385, 0.0938173159956932, 0.0036167199723422527, -0.08849332481622696, -0.3886811435222626, -0.025259945541620255, 0.06891799718141556, -0.021492842584848404, -0.05246526375412941, -0.013014944270253181, 0.013142584823071957, 0.01631084270775318, -0.03224242106080055, 0.019461816176772118, -0.025945965200662613, -0.0020712034311145544], [0.1155930832028389, 0.031982578337192535, -0.003980487119406462, -0.04016941413283348, 0.37051331996917725, -0.01530921459197998, 0.004665654618293047, -0.005288609303534031, 0.0104967737570405, 0.036669157445430756, -0.0009977708104997873, 0.04497454687952995, -0.034276146441698074, -0.028365669772028923, 0.016356127336621284, -0.14974097907543182], [0.06687058508396149, 0.04317687451839447, 0.017313646152615547, 0.016404932364821434, 0.018717559054493904, -0.038706373423337936, 0.07687672227621078, -0.01644914783537388, -0.014339434914290905, -0.06366276741027832, -0.031221972778439522, -0.021997349336743355, -0.07865706086158752, 0.02410183846950531, -0.07634276896715164, -0.015612318180501461], [-1.9672497510910034, 0.00609063683077693, 0.3465345501899719, -0.03818840906023979, -0.4201769232749939, -0.6921167373657227, -0.2644866704940796, 0.31673121452331543, 0.19053737819194794, 0.38061222434043884, 1.125903844833374, 0.8998550176620483, 0.238424614071846, 0.5916091203689575, 0.23023124039173126, -0.6058728098869324], [-3.4301259517669678, 0.9701681137084961, 0.3227439820766449, -0.6510583758354187, 0.007689665537327528, -0.04651641473174095, 0.24182955920696259, -0.1389407217502594, -0.9821995496749878, 0.05870514363050461, 0.7039200663566589, 0.3892001509666443, -0.3017522096633911, -0.4275500774383545, 0.04189221188426018, 0.7988904118537903], [-3.6461966037750244, 0.3950234353542328, -0.8233503699302673, -0.31644871830940247, 0.2966275215148926, 1.2603251934051514, -0.5520502924919128, 0.6946330666542053, 0.6558351516723633, -0.27895838022232056, -1.887865662574768, 0.93133944272995, 0.9806489944458008, 0.7245128750801086, -0.36307623982429504, -0.28113389015197754], [0.5796867609024048, 0.6949730515480042, 0.34620019793510437, 0.8913365602493286, -0.8808917999267578, 1.1832795143127441, -0.21195770800113678, -0.06059757247567177, 1.117682695388794, -2.333596706390381, 0.3407846987247467, 0.7134702801704407, -1.500187635421753, 0.04380101338028908, 2.214707374572754, -0.3542958199977875], [0.6081406474113464, -1.0010361671447754, -0.09513355046510696, -0.2569409906864166, 0.9286884665489197, 1.4801208972930908, 0.21634969115257263, -0.7857932448387146, -1.9620262384414673, -0.11741877347230911, 0.1305258721113205, -1.3142526149749756, -0.26808980107307434, 1.3336745500564575, -0.33407652378082275, 0.9165074229240417], [0.7630730271339417, -0.7295125126838684, -1.8380091190338135, -0.5047094225883484, -1.3011679649353027, 0.2374945729970932, 0.452463299036026, 1.6716400384902954, -0.13849332928657532, 0.03799767047166824, 0.901671826839447, -1.0461093187332153, -0.36309343576431274, -0.9831460118293762, -0.4626404047012329, -0.4774484634399414], [1.9161664247512817, 0.4060516059398651, 1.7970335483551025, 1.3547312021255493, -1.2930774688720703, -0.31316354870796204, 1.779056429862976, -1.8852741718292236, 0.8455169796943665, 0.5214966535568237, -0.8464288115501404, -1.58586847782135, 0.9718304872512817, 0.4039749205112457, 1.0004332065582275, -1.14103364944458]], "1_weights": [[0.03273468837141991, -0.09104792773723602, -0.23937742412090302, -4.369085311889648, -0.007655291818082333, 2.1818225383758545, -0.3233787715435028, -0.4009610712528229, 0.20376917719841003, 2.4585485458374023, -0.10958020389080048, 0.7581926584243774, -1.5209048986434937, 1.3398950099945068, -0.7434011697769165, -0.2878585755825043], [0.6943700313568115, 0.4390130043029785, 0.24146872758865356, -0.30348846316337585, -0.2707539200782776, 0.09455738961696625, -0.26577430963516235, 0.17838838696479797, -0.3872290253639221, 0.06440873444080353, -0.6643233895301819, -0.3574272692203522, 0.36443862318992615, -0.5137166380882263, 0.642561137676239, -0.20874373614788055], [0.5365270972251892, 0.5877025723457336, 0.6919223666191101, -0.5314348340034485, 0.457477867603302, -0.3806525766849518, -0.3982716202735901, 0.1749899685382843, 0.4980813264846802, -0.009145057760179043, 0.7129021883010864, -0.03221708536148071, -1.1040294170379639, -0.6405749320983887, 0.12348930537700653, 0.5748248100280762], [-0.31990647315979004, -0.6007283926010132, -0.23969128727912903, 0.03662603348493576, 0.2921869158744812, -0.3779768943786621, -0.25250861048698425, 0.6157000064849854, -0.03237610310316086, -0.3416573405265808, -0.30815085768699646, 0.4821969270706177, -0.04214153438806534, 0.07396663725376129, -0.6052074432373047, -0.03450584039092064], [-0.39478588104248047, -1.2812035083770752, -0.22008539736270905, -0.11458364874124527, 1.388742446899414, 0.3435884416103363, 0.2601812481880188, -0.41953137516975403, -0.6923779249191284, 0.6183664202690125, 1.663550615310669, 0.7216723561286926, 1.4876797199249268, -0.6683728098869324, -1.4895777702331543, -0.05407663807272911], [-0.7669598460197449, 0.7772325277328491, -0.22545592486858368, 0.1286918967962265, 0.550537645816803, 0.3380885422229767, -0.12457878887653351, -0.583215057849884, -0.7647919654846191, 0.8827992677688599, -0.03746509552001953, 0.21970196068286896, -0.4487372934818268, 0.31095513701438904, -0.6368105411529541, -0.574057936668396], [-0.28433865308761597, 0.0003740186512004584, -0.10259473323822021, 0.15875151753425598, 0.015511204488575459, 0.25213417410850525, 0.29198557138442993, 0.07725956290960312, -0.1712362915277481, 0.46134814620018005, -0.5455754399299622, 0.2798285186290741, -0.47830331325531006, 0.4404277801513672, -0.3013712465763092, -0.12847192585468292], [-1.2394098043441772, -0.7457877993583679, -0.516783595085144, -1.133459448814392, -0.7720934748649597, -0.4127485156059265, -0.3976019024848938, -0.17884252965450287, 0.13680613040924072, -2.0196754932403564, -0.2108345478773117, -1.1365416049957275, 0.9627234935760498, -0.7699081301689148, -0.7948984503746033, -0.08338532596826553], [-0.31460708379745483, 0.059181805700063705, -1.4851642847061157, -1.599997878074646, -0.47968748211860657, -0.497160941362381, -0.3040798604488373, 0.20060013234615326, -0.26296254992485046, -0.5837439894676208, -0.528840184211731, -0.7032387852668762, 0.6886262893676758, -0.1492437869310379, 0.966643214225769, 0.13001391291618347], [0.747340738773346, 0.1649525761604309, 0.1490951031446457, 0.5702460408210754, 1.3846372365951538, -0.5087871551513672, 0.13491123914718628, -0.7148919105529785, -0.24745970964431763, 0.2405812293291092, -0.4887847602367401, 0.9083940982818604, -0.2096177637577057, 0.26920074224472046, 0.04480721428990364, 0.1520698368549347], [-1.3733099699020386, 0.0029934034682810307, 0.2976142466068268, -0.04163180664181709, -0.0365108847618103, 0.3083760142326355, 0.5430593490600586, -0.44389060139656067, 0.8861380219459534, 0.05560024827718735, -0.5898259282112122, 0.028711196035146713, 0.30643659830093384, -0.24436934292316437, -0.056639816612005234, 0.8815460801124573], [-0.01525924913585186, -0.033062953501939774, -0.02746916189789772, 1.0475906133651733, -0.0954844057559967, 0.7712888717651367, 0.4679822027683258, 0.12004945427179337, -0.6366840600967407, -0.08144599199295044, 0.1154627576470375, 0.12324357032775879, -0.4382699131965637, -0.15367969870567322, -0.4820847511291504, 0.09790942817926407], [0.2587866187095642, -0.1846388280391693, -0.2255120873451233, -0.668266236782074, 0.18126794695854187, -0.20066124200820923, 0.2224179059267044, -0.5014446973800659, -0.44629329442977905, -0.057227395474910736, -0.14795704185962677, 0.2379942536354065, -0.0864342451095581, -0.6427668333053589, 0.8689595460891724, -0.21046653389930725], [0.14483922719955444, 0.11173200607299805, -0.8207279443740845, -0.6841902136802673, 0.5144580006599426, 0.1237834095954895, 0.6697713136672974, 0.3548583686351776, 0.3078767657279968, 0.5201253294944763, -0.49300020933151245, 0.005073383916169405, 0.06574597209692001, -0.1959594041109085, 0.12627728283405304, 0.5602147579193115], [-0.6199109554290771, -0.6410367488861084, -0.1808173805475235, 0.2589110732078552, 1.1898990869522095, 0.9279180765151978, 0.2885122299194336, 0.35856178402900696, -0.06658396124839783, 1.558329463005066, -0.9477458000183105, 1.510830283164978, -0.6740833520889282, 0.3296409547328949, -0.3648824989795685, -0.09836180508136749], [-0.19644375145435333, -0.10071615129709244, 0.11678612977266312, 0.6040669679641724, 0.31663864850997925, 0.4170331060886383, -0.42129799723625183, -0.40445688366889954, -0.009230205789208412, 0.22030922770500183, -1.248681664466858, 0.3031095266342163, -0.30881553888320923, 0.17864543199539185, -0.24425625801086426, -0.2973872423171997]], "2_weights": [[0.8966254591941833, 0.876489520072937, 0.9629635810852051], [-0.4592302441596985, -0.7735589742660522, -1.1533269882202148], [1.0301331281661987, 0.6196607947349548, -1.746862530708313], [-2.288788318634033, -2.224445104598999, -1.884438395500183], [-0.9183072447776794, -0.6732519268989563, -0.4717710316181183], [-0.8041548132896423, -0.764904797077179, -0.7590072751045227], [-0.9043178558349609, -0.7219460010528564, -0.6075066328048706], [-0.9680200219154358, -0.8998141884803772, -0.8170017004013062], [0.16883456707000732, -0.16896651685237885, -1.906205177307129], [1.0049712657928467, 1.0607233047485352, 1.2181166410446167], [2.172384262084961, 2.2664732933044434, 2.331552267074585], [-0.14065581560134888, -0.5255978107452393, -0.9691038727760315], [1.202490210533142, 1.11495041847229, 1.0109056234359741], [-1.0255557298660278, -0.8634620308876038, -0.7001211643218994], [1.083422303199768, 1.2347291707992554, 1.372536301612854], [-0.2853032946586609, 0.07413631677627563, 1.430507779121399]], "0_bias": [-0.04841994494199753, 0.049330417066812515, 0.029630543664097786, 0.13389809429645538, -0.3011898398399353, -0.11321398615837097, -0.022400181740522385, 0.042027849704027176, 0.10328735411167145, 0.05924355983734131, -0.06644080579280853, 0.06559423357248306, 0.0054740216583013535, 0.04294949397444725, -0.1657770425081253, 0.13417336344718933], "1_bias": [0.0556846521794796, 0.6514357924461365, 0.293203204870224, -0.15551160275936127, 0.3009476959705353, 0.15895327925682068, -0.35530975461006165, -0.02381884679198265, -0.17404484748840332, 0.040580082684755325, 0.7424044013023376, 0.4183722138404846, 0.7873005270957947, 0.4122674763202667, 0.8810970187187195, -0.5999619960784912], "2_bias": [-0.36938849091529846, -0.2093111127614975, -0.019805237650871277], "format": "png"}